|--- English Version ---|
MIT License

Copyright (c) 2019 Eltrac

Permission is hereby granted, free of charge, to any person obtaining a copy
of this software and associated documentation files (the "Software"), to deal
in the Software without restriction, including without limitation the rights
to use, copy, modify, merge, publish, distribute, sublicense, and/or sell
copies of the Software, and to permit persons to whom the Software is
furnished to do so, subject to the following conditions:

The above copyright notice and this permission notice shall be included in all
copies or substantial portions of the Software.

THE SOFTWARE IS PROVIDED "AS IS", WITHOUT WARRANTY OF ANY KIND, EXPRESS OR
IMPLIED, INCLUDING BUT NOT LIMITED TO THE WARRANTIES OF MERCHANTABILITY,
FITNESS FOR A PARTICULAR PURPOSE AND NONINFRINGEMENT. IN NO EVENT SHALL THE
AUTHORS OR COPYRIGHT HOLDERS BE LIABLE FOR ANY CLAIM, DAMAGES OR OTHER
LIABILITY, WHETHER IN AN ACTION OF CONTRACT, TORT OR OTHERWISE, ARISING FROM,
OUT OF OR IN CONNECTION WITH THE SOFTWARE OR THE USE OR OTHER DEALINGS IN THE
SOFTWARE.

|--- 中文版 ---|
MIT 协议

版权所属 (c) 2019 Eltrac

特此授予该项目的任何使用者许可：
对于本项目和相关的文档文件，你拥有以下（但不限于）权利
使用、复制、修改、合并、发布、分发、二次许可使用本项目，

行使以上权利，必须遵守以下条款：
项目内的版权声明和本许可声明均应包含在本软件的副本或重要部分。

本项目按“原样”提供，不提供任何形式的保证、明示或暗示，
包括但不限于对适销性的保证，
适用于特定用途和不侵权的适用性。
在任何情况下都不应该向作者或版权所有者对任何索赔，
使用者以任何行为造成的损害，都应该自己承担。

> 中文译者：Eltrac | 有误请纠正 
